function [Y,Xf,Af] = myNeuralNetworkFunction(X,~,~)
%MYNEURALNETWORKFUNCTION neural network simulation function.
%
% [Y] = myNeuralNetworkFunction(X,~,~) takes these arguments:
%
%   X = 1xTS cell, 1 inputs over TS timesteps
%   Each X{1,ts} = Qx30 matrix, input #1 at timestep ts.
%
% and returns:
%   Y = 1xTS cell of 1 outputs over TS timesteps.
%   Each Y{1,ts} = Qx30 matrix, output #1 at timestep ts.
%
% where Q is number of samples (or series) and TS is the number of timesteps.

%#ok<*RPMT0>

% ===== NEURAL NETWORK CONSTANTS =====

% Input 1
x1_step1.xoffset = [1;1;1;0;1;0;0;1;0;0;0;0;0;1;0;0;0;1;0;0;0;0;0;0;1;1;0;1;0;1];
x1_step1.gain = [2;2;2;2;2;2;1;2;1;2;1;2;1;2;1;2;1;2;2;1;2;2;2;2;2;2;2;2;2;2];
x1_step1.ymin = -1;

% Layer 1
b1 = [-1.3147498535397346142;-1.6325961487466720268;0.071515509380359873481;-1.5525763136668895292;-1.6679543233268938618;1.3002136865799638343;1.643221558752774536;-1.2973787370920462081;-1.2906210717422550438;-0.0073103891480276591772;0.078064079001535502389;-1.47504009473557951;-1.7037287471260802452;1.5881955916791608008;-0.021726199950905477482;1.5824996417381556046;1.429776801346019699;-0.98252052105477538646;-1.3329067977980892934;-0.067745533564782370317;1.5575909499362188271;0.051740107950309595364;-1.3225472042152690566;0.020173447250307847967;0.0063065093798747489176;-1.9833047706640656305;0.05373848290375175113;-0.0068131991371458535192;-0.047386055775580443461;0.063908805620271444403;0.010955404327528846242;0.01270742593956398353;-1.6990877755067737009;-1.5461608932727846089;-1.2570815953316658575;0.03303988833588772378;1.44928700379334785;-1.5630376835341193154;1.2303810467995701661;-1.3330851031253720951;0.003898626332432694741;-0.0011241938314629957869;1.5923376709339749357;0.013370714937746748865;0.024214258295443033542;-1.2767861884168951736;-1.6301905336854130013;-0.075622854996764979352;1.6127370138888299511;0.57540250504916812258;-1.7049185743638424206;1.4066048544844347301;0.21130384117145184497;-1.4885338841230817408;-1.3334011333151578604;-1.6966181300765375006;1.2785885061198676294;-1.2883613237553690478;1.7047154081040731821;-1.5792683731182890483];
IW1_1 = [-0.13178988875244176948 0.019571729838747910918 -0.23247881271151107918 0.019287380036257562727 -0.065826059148122742504 0.0055499469976407062033 -0.072922385527091709845 -0.035137998652709910574 -0.062180119855794614703 0.012824244448692009163 -0.32030287579477467741 0.0077273801526286031716 -0.065428797926679757579 -0.080935765296486036902 -0.05271040873874501681 0.03476460557374477095 -0.072249074418358427696 -0.087602016621310271893 0.016978706921734962321 -0.14977763783053213431 0.0079660683218508790415 0.024194218421667940122 0.009008882458298353435 0.010533205232340969726 -0.32877896053521765696 -0.11241602618696198979 0.0035947466097003091291 -0.097040388849781958336 0.015768626893495958641 -0.062955269179526957002;0.060293005686943040855 0.0069219680915181443226 0.33213064264877700804 -0.098350406415879013111 0.036940588216789069231 -0.07538017390876811108 0.0002609442139314402582 0.089442610220570747948 0.0096636252129627224494 -0.072348539570919953579 0.010454056492152323868 -0.051738316020956777452 0.0085110917766045447036 0.083810029520194229136 0.0030297031147818640449 -0.30961710792957591876 0.010585973119134922671 0.14603081163743403259 -0.059645420753476327547 0.015348854930663817162 -0.042394727458110119389 -0.073749367898844106484 -0.047937246452533763263 -0.057522731679593708254 0.076542001019995878353 0.13677268604471243263 -0.079073788531911201605 0.041303976576921148933 -0.057531356115049850364 0.084189778142143650852;0.0032710236749643991153 0.0046183587284914975196 0.014456075715498731965 -0.04466106082652401138 0.0022092378548659499099 -0.026995800518519481176 0.0053223427716391682324 0.0052966955742314676334 0.010397067172037149571 0.018470595926101684298 0.015687607798827215427 0.061744786581363321487 -0.0013672779957028772125 0.0038475307277540046758 0.0019737827398695140593 -0.0034064257125628483874 0.0046870318852792929379 0.0069371310155486743537 0.026119497086115321671 0.020778151002909257816 0.0085792443576884827583 -0.023392166263612099858 0.050399219374209144884 0.00031264378972268512232 0.0051853857710863829333 0.0057749725938865568639 -0.010698496944158183974 0.0056240496314207549799 0.061344096225627649244 0.0059337846480773375618;0.041837447966330466864 0.080141787506310777078 0.28111328598291068781 -0.15638772906227380033 0.045208754450854947426 -0.077684312517779921525 0.0033152220348132751399 0.074558577207066489834 0.010620454122710506345 -0.043433656639664572352 0.017631646833604526503 -0.017826359693190733935 0.0081826108594232008914 0.074777613985702554023 0.0042007768578668338091 -0.27559670657226592594 0.010934771269314087772 0.11143988807723045897 -0.043709513799375807053 0.017181746328142240288 -0.03727368176006758127 -0.13110853409429024108 -0.0079802602090191330358 -0.068841244475786642076 0.079598107104050339067 0.11452813377393041006 -0.061478367161952693354 0.074339472599006944931 -0.01368754792757753691 0.068919377907703735509;0.097719152888370408583 0.1047594589727968567 0.36597721028638641183 -0.11542564058952027584 0.10928591849784104195 -0.04761144156347883738 0.0039501348887188781137 0.10976729671720694692 0.017156229215044442593 -0.078731132030852163384 0.031072650498081059306 -0.045178858105539863865 0.013073219234255337856 0.058831695730430504099 0.0084306215599841936859 -0.3709464628074973791 0.0029993984594563157832 0.047601313064609740433 -0.034803560391036263144 0.026120531519349989014 -0.065850275544738254285 -0.09763415130090698224 -0.052077567347584209634 -0.085748496604669974253 0.11220992259209242037 0.098186710244214797649 -0.064239651022529001279 0.085212350568134878626 -0.082383570373064873849 0.12567902387288362731;0.023566678762538127018 0.075252844815883346286 0.27622967270819354102 -0.021988666843978408455 0.090651295344612262128 -0.0091821797618333190344 0.073979395878615752946 0.0089987468982371168064 0.052887640728197043982 -0.01630315577523747117 0.31528716640509280023 -0.0094646861827919030741 0.066552578182332566836 0.11753213627189101897 0.049478284943149979103 -0.032404306726959077045 0.063313171573300200401 0.14474724682044218249 -0.016522269899131272058 0.12870767860692439166 -0.010062848011775780976 -0.024158597177004078466 -0.0081276574326791424518 -0.011389866980607600555 0.33761169369767740633 0.061975013805729547989 -0.0041611808131279334755 0.051220360406148975063 -0.017663396165167974394 0.069274331514368917007;-0.086328776805462303923 -0.079994763438176186288 -0.31090885542555157794 0.13916566152475015605 -0.079005432599413893957 0.10416206664224916811 -0.0039842213738384320287 -0.088285366580507063095 -0.012677678410536959847 0.063040239071858281128 -0.029872921265802987456 0.066108428898807830576 -0.010998857558412488897 -0.014723244823253388985 -0.0096005112410926535943 0.31456978406823915551 -0.01215289157082832458 -0.12838612351941391942 0.049502034905510111651 -0.02100845067490494239 0.050189115757826488484 0.14492425889635773828 0.071020318872453067072 0.017429987708735269342 -0.074225075262574796708 -0.1108094963908876629 0.041410518164334754465 -0.076693541726554348426 0.083873379761425365109 -0.097987597410473817328;-0.08252590546145623096 -0.11720599125395385343 -0.23951892097177798768 0.015152545411456854602 -0.019472398892408766813 0.008517598842587122826 -0.061859127687262371875 -0.083882088459678566528 -0.053421958411744761841 0.013890533394355780716 -0.28792333686759458145 0.007127464006655023776 -0.058596149227085309041 -0.013171010418673604822 -0.044546026805147853622 0.035781547931023963138 -0.069434041124134468492 -0.13243098303045613973 0.0098249571434141091952 -0.1256357969869510427 0.0084787844203100017071 0.020901312966458338721 0.0091608367753517987164 0.014906586357421069619 -0.32889135117851886481 -0.080883210137063579759 0.0037484772267000602587 -0.061685901664061189298 0.018115604487907232406 -0.051076325272231479224;-0.028594090104450187173 -0.082856054444817528459 -0.24884263815679955045 0.018023632110550604629 -0.025436633771102151041 0.0088052927572852216637 -0.070912063748839418431 -0.10919457248645653147 -0.074541795550342473953 0.01446355117582102251 -0.322171594169013642 0.0048408991331566663188 -0.066990676092391898688 -0.1252789892898825419 -0.059896741592923852249 0.0356563388402087178 -0.07489511254193646772 -0.030848993154532121375 0.015432268720971342377 -0.11967244132678095392 0.0069375023471162462416 0.02567925825887588942 0.0095657994201132599821 0.011352138549957979663 -0.35534635500647632211 -0.083788113905406746973 0.0059808105377116907442 -0.08925242645933675889 0.017401759406409530312 -0.044248895629181737854;-0.0035064260396188606968 -0.0035274736290092463184 -0.0080810302936721277456 -0.041071775979516778055 -0.0047765065043250381355 0.023759854751045122317 0.043818160874497837087 -0.00095491961980522367497 0.0065896954870629095499 -0.017287906416801876452 0.018601895554502718283 -0.030858722526828877286 -0.000799807804030696224 -0.0041058541591217625685 -0.0024856045002648288929 -0.01727557454862976849 -0.01619153599381011055 -0.0035133906578694333242 0.065842531190096809102 0.031804832258466149419 -0.057353152449368297039 -0.042589167438691205581 0.0043945178382709402035 -0.011006834233836693127 -0.0091620018357351055982 -0.0036151396988102994096 0.0047790038823343787208 -0.0020093764767609803047 -0.018739823242207437337 -0.002258081061137900622;-0.0063400033747571639745 0.0030649713114505325665 -0.0058606883982633278807 0.011108299868747124883 -0.0018511777072801787261 0.0014884775312801886652 0.081677093695377928073 -0.0017893773991655419642 0.0093046747943287908683 0.042174781316556615718 0.068017316402317257173 0.037433458610530601085 0.0032233608960440720409 -0.0068839064702621438618 -0.00015589732119935479433 0.016598272377561059526 -0.0049927817918029530203 -0.00048050896240626474968 -0.03360114130745522204 0.025751039195711779989 0.012614196571197935567 0.00017296687142327542806 0.0052329882139033117791 -0.0070812601537849342512 -0.010634973803833219427 -0.0042861887753040421242 -0.017672371845698437581 0.0056659203438411322867 -0.026851471257747266258 -0.010929298272179411439;0.086273010135934649623 0.096088143081663232592 0.28781984106168229109 -0.10515954078053746379 0.068792453277568346715 -0.037252249486247931975 0.013352506356996609455 0.13865269376920844047 0.014643928455500544034 -0.081500360446625425004 0.069145850776517678304 -0.050146124968135440125 0.018503287582294639796 0.08468369214552157187 0.013176255919924318577 -0.24818451367216032288 0.017572520196952587379 0.14233078425943579415 -0.050538496519144777974 0.034419503955338354162 -0.046297093149808968282 -0.082691773683782027193 -0.029942715852509616675 -0.051070858392449611229 -0.015359610090410563688 0.14723293227733277866 -0.074050896129715021443 0.12374402419792285279 -0.045276735479981490562 0.08594223362214395423;0.09869857485676039599 0.087777197402068393717 0.3323924458954048422 -0.1156777508116583475 0.043945296290922752913 -0.067738207759185042889 0.0035184042101005013822 0.065001323937861579805 0.011165456754802028858 -0.059018833442482890317 0.026242321769603577791 -0.061961148710281035989 0.0096587431911946877022 0.14421983925740386456 0.0044485085303869143988 -0.31039848431598049405 0.0061826765807249358178 0.14804424247807007609 -0.067945233492361117866 0.016752626220224879627 -0.048087687523648170451 -0.11305164035107388709 -0.051150762971237273558 -0.050515210756728483321 0.084675752076493637777 0.017380760978188351806 -0.054559919158576927756 0.11681167508448456194 -0.060441440967279699836 0.099577187506645015169;-0.046356122874212077334 -0.067772650541058104823 -0.29262085639362833689 0.094650816113663119311 -0.064539840987385618809 0.066907131092754770774 -0.0067515049456738761985 -0.072443411647924893515 -0.011273043262815004087 0.097475685103213569049 -0.026543490817618083794 0.045042696001641908954 -0.0083476680826959324955 -0.081581505516962180002 -0.0083010238081581907976 0.28678595958229191609 -0.0095947536697806364708 -0.12189268257631186154 0.056486539797798600293 -0.019867989827072621289 0.05164864238881663322 0.12091933327365289585 0.096900217625270401722 0.089684375549966138808 -0.063904980212377768267 -0.10982181782291985939 0.036179369963101323804 -0.079378580488537228699 0.03395369568193235682 -0.077495362870850625914;0.0037953427747411971373 0.0017772606148811725783 0.010563862049623977055 0.00047300069725203606075 0.0027026831335513587691 0.038907537245549093929 0.016684527719280192043 0.0020377534399185458225 -0.017899194062374057523 0.010200207899874793802 -0.013001640086201263213 0.020227404362229781803 -0.00019167586288820499113 0.0048651835854295541473 0.0067453617900634530932 -0.0049086324184222894507 -0.036157223292627639621 0.003145015254134511315 -0.0046186257649434882266 -0.027954095966955822689 0.0079739983010063686386 0.01828575900532775772 0.033375985040765492051 0.081395439663266580532 -0.0037276413986198166962 0.0044814258550106367621 0.049079731739286890091 0.00043956155527394177819 -0.032526652016889492924 0.0039558439810552818369;-0.060896782898922093008 -0.086038136032856010749 -0.32393647505784478602 0.098388882802292659813 -0.077382816696367887066 0.049160606698175159102 -0.0047285391174341443593 -0.073303938842912891305 -0.014476364596778664925 0.037284549644863426709 -0.033343883352294850786 0.055773442323072359994 -0.011936436207628685 -0.096768270597466274352 -0.0081227059274347340745 0.30263439818877274634 -0.014042221087340685595 -0.1367500520115803031 0.048772042566822354503 -0.022681449987128135537 -0.0055609939445380252368 0.1263080001040400302 0.052153862452541034644 0.077045998833265780248 -0.06636842512978621822 -0.1430570794001491397 0.044853621145481838151 -0.082728858527922499722 0.099625898185448633071 -0.088930491155848459539;-0.094205358247937187599 -0.084274619609445697299 -0.18987853123597805971 0.11932466600772730081 -0.10630054022748533504 0.047900424315542693143 -0.0066952435021561534922 -0.11500448790350528694 -0.015302975873702953646 0.075180063141267738924 -0.024591205416198028827 0.058904257579820110124 -0.021162616281901303061 -0.11488944993397812167 -0.015687107915778753658 0.20877542581477717687 -0.013085648646321517211 -0.16084867270928371319 0.05874558538428139437 -0.047989811410640695333 0.039109287747354726239 0.10322633969874925319 0.045617391239833680883 0.049303397023241900265 -0.19350019334992826781 -0.13500873706509278205 0.058863112999002341341 -0.10399052885647241951 0.062173134845173984309 -0.1427898951568334629;0.021804381407777271434 0.030758866295715753258 0.082019614140872526553 -0.04984910265422270309 0.0095616517111642464199 -0.0070095719363071611746 0.0095692144215474075897 0.02506062553264481671 -0.00094270379036004241756 -0.029640498526578025473 0.0045910126856825040492 -0.078381645447438322294 -0.0025968845848887874006 0.019487309468618332908 -0.00047846158562789108245 -0.10845585186708636694 0.0049738334545580131785 0.045782379052653178475 0.00078108266658367410916 0.0071275907101052450587 0.0023863070421796515365 -0.027998862699184688674 -0.0039161159822373109787 -0.025338421460171955957 0.022750736443518829871 0.042672613594902486511 0.0018695930955508295243 0.033702965899422142326 0.0011915351020764810251 0.030566714442615283004;-0.049754095871804231155 -0.063348857099700409123 -0.19028397267278104876 0.016547283889564074616 -0.06702815874914759553 0.0067195986585106412189 -0.0039103597950872924158 -0.086864437451148399094 -0.089493735117299952342 0.010462664937124386763 -0.32709988345684359867 0.0055652384260454507842 -0.06446327110138531935 -0.093417557676996554328 -0.0646931958873190327 0.034507671990774785309 -0.074047492530385380927 -0.13968346491351363303 0.0094521092865751284162 -0.13513347833836764078 0.0047324453125543175513 0.019902054970554423907 0.0066379798415840580994 0.010714017927225209098 -0.3382251725995973346 -0.071104202137858590893 0.0032614101568670724601 -0.088369306023474564205 0.013741437576858290745 -0.0515923963474563263;0.012540408746873569351 0.014905934104345304123 0.043022231264012819607 -0.0277452467850531799 0.012176597773893635748 0.020024158596861244691 0.026694249227606960811 0.016861414114586630031 -0.01009582569272979985 -0.033990399090228690104 0.0092443270287157850579 -0.0073334942545482543 -0.0020586623117286604115 0.015929463707265636291 -0.055066107706129796551 -6.973690440440904071e-05 -0.023656402440116824915 0.023223542823562821902 -0.011775769745376142919 -0.010397524835791618208 -0.03487290878314124043 0.011730294409454047541 0.027116618426458748842 -0.024043118843446391331 0.038995783984997756111 0.017447213283487722491 -0.04532341345182675646 0.01589936186987835065 -0.014892601544872065972 0.019683936515341879381;-0.039212804554398190959 -0.064566038217728466408 -0.26551746280310178916 0.093902332118182843534 -0.042139787392636671171 0.017308486736087237701 -0.0049614305701804707269 -0.053059482212014438818 -0.010170143764313502657 0.10483442493751521374 -0.015639732886370411036 0.04208489113367579193 -0.006612946714241466073 -0.073335122371228703142 -0.0055184792153070132831 0.26982639914935840908 -0.0098902704154260837749 -0.11538591195211506113 0.064587466743532329083 -0.01727570432697089764 0.034446133756150555671 0.13622088035615009805 0.021129022262796098158 0.029013005349537518418 -0.067244844805906006657 -0.10607094321354108846 0.055794992967237895531 -0.062753202564950094633 0.066590715359407665064 -0.070828029465833275413;-0.0039068974618854911129 -0.0026510128127178421431 -0.0088639191773711521055 -0.0099109286373674377463 -0.005873170828028261882 0.020724683775734602242 -0.012913821024257973041 -0.00074094052232363024745 -0.010483507269044109456 0.053045213205068483808 0.026300057071813959242 -0.021068347346387510111 0.0074087680795932465277 -0.0063896969911031624781 0.0071019070167213657965 -0.037840213226686056358 0.028337684186478601794 -0.00046744669621462441381 0.019257676075976074004 -0.0097065587281397538999 0.015088426597628551082 0.041131215864729349374 -0.018128088795523616267 0.047263288157311650339 0.021465411304383924529 -0.0032752008936313609967 -0.056611422879329124924 -0.00014708719578844034752 0.025217855733222785397 0.0011621376357967545898;-0.047020400007816959276 -0.10076755547541445257 -0.12854595702287946457 0.014255916907570049049 -0.086919369008986779868 0.0022447506000730448571 -0.091094826154001801166 -0.063479644566313137011 -0.05439081974663911162 0.010826291153278318896 -0.36716630448750126048 0.0048975974627567782707 -0.067964283467569261421 -0.074531533904102789667 -0.072774097613004629093 0.034031389922188896857 -0.082097062016377814198 -0.099924350045422077882 0.0092932831123099610832 -0.15878521093360117855 0.0039529103320665977608 0.016490492820135073393 0.006077754496065284652 0.0087210151134174667548 -0.3481947820147166528 -0.043163663016244205317 0.0033181783703921793535 -0.0938119215980496024 0.014246548420420701228 -0.068870882592047433235;0.00093734068919981955014 0.0037546651512043666479 0.011387445396962179653 0.012376238868238595078 0.00013281727861895952728 0.046815107371286170113 -0.013293671482017550833 0.0045540827434684726452 -0.019910059286122133715 0.0021176756805592017278 0.035414557545226502122 0.029169317636700390489 -0.0048027174063786778543 0.0013960470973071303219 0.035770619862197525207 -0.015393805412967417195 -0.02382030177307208757 0.0049338088698713282107 0.026700430841712058383 0.040305180182693342572 0.017466179327196261484 0.057494838615073942667 -0.015809351177022482743 -0.06061793097648814771 -0.0073074112398577766372 0.0038594714514022855113 0.011464542089973973893 0.0052830812474188304506 -0.0093594606605358517115 0.0015677907660123803751;-0.0025312022849010721096 -0.0037582507142419445401 -0.015364675578725412591 0.036179795853184440468 -0.0020645066954930193191 -0.049139914226759444371 -0.0075895187348942452429 -0.0048567441702780230969 -0.018419553284492743567 0.032448461893763186348 -0.01664790813389763896 0.0070237911069261403998 0.0020970884473188438485 -0.0040543048732152395935 -0.0408740360249439591 -0.013184501909246167453 0.0047446245091792033782 -0.005738938023796640725 0.078282180068202700252 -0.026314044965341582688 -0.0028921964636857509096 0.0075221944920266974391 0.027289202695693987044 -0.020658942871644804529 -0.0034801651979032657315 -0.0062382271191804578719 0.00036002346236934745869 -0.0049913610172165343362 -0.037147995501868286139 -0.0059511966792671934512;-0.0063121686630068568266 -0.0080470163002979936545 -0.022992529944337699449 0.00055698027901871795774 -0.0078544098690348593955 -0.00016500872906672866321 -0.0092246159017035766342 -0.011627566530708116979 -0.008671181056788717853 0.00086736096218196123871 -0.042648511661304414067 -8.7177862580968223352e-05 -1.2982045067883507539 -0.01001267228133746745 -0.0060572498021883892927 -0.00017218675888943572958 -0.0091778251228446829091 -0.013313197446777735172 -0.0010518741707286488347 -0.017772734435920842927 -0.0012158380937964340628 -0.00082684657743327719635 -0.00068355480906142479774 0.00023152148798134808676 -0.042223468631803227902 -0.006691677222572199428 0.00054832700360302394967 -0.0081466702473926011496 0.0019445849247871772447 -0.005477009433888370242;-0.005398812751900737214 -0.0069343476084673385737 -0.02299715125762494955 0.027125875180001677439 -0.0083907842717623661727 -0.0050861716297242506174 0.053731562228709575657 -0.010684573831137680541 0.062382735266671845986 0.0013904343825708910531 -0.02211984676215951115 0.062398817990864385852 0.022750165579062460453 -0.013054305719785021939 -0.009596157611452615227 0.0082249852543436127728 -0.0065714599961140757536 -0.0071316491814235527177 -0.0051651155886492253547 0.023879079943453403179 -0.034508754236498101475 0.046657405175137910136 -0.021526475957794527494 -0.0042689255959318826369 0.044002718261126609611 -0.0055788249375103970279 0.026149177694575427566 -0.0062933613123264536826 0.02387612317007167112 0.0034872244037812897936;-0.0015697154881784197364 0.0022931047037621217315 0.0029390451558531428301 -0.0038551560297847252412 -0.001088367122422602461 -0.058668411728773357805 -0.023928035651662269562 0.0021194489614827565979 0.00082340206509206486426 -0.0095497899951759411541 0.012670624971194553721 -0.01789973441617085867 0.002378317210348127389 -0.0029078680464962318626 0.049930787233366455413 0.01053031174521760864 -0.060048793618636076008 0.0040758148829432450794 -0.0091883617858284100804 0.024816267736366571378 -0.03788311101002032194 0.03356446947916913448 0.0301594810443077746 0.012041637997444839397 0.015783183776833725059 0.00058427148159481180362 -0.016862965312581912336 0.0046853125791881770901 -0.024342274090505194167 0.00030238406102137160066;0.0024672021856460358072 0.0001273672020585740576 0.0019947045235940868459 -0.026952791557791205834 0.00017106380221325410279 -0.020274423468154945116 -0.025144400725999920682 0.0023310394142738968988 -0.021127887187531856072 -0.0069242703140355368885 0.025202564284242362502 -0.011437839988454996665 0.0035568716449501081543 0.0018858418106469788771 -0.037371667817441722725 -0.051325309121574007321 0.0031835901107873194535 0.0032145540622320455809 -0.025815147686976194774 0.038801353522452779188 0.024090051419324291782 -0.026349314780146539799 0.016650040177462070712 -0.012074070028181584785 0.022479578678893913368 0.0013737987132519293831 0.048182168479074423406 0.0013654745734872687259 -0.019477849428004029991 0.0068891652280029603075;-0.0014831564685826911093 0.0024875479233927330451 0.0063813613111625006047 0.023847548313887953486 0.00026214032456047865229 -0.019990415446882257855 -0.00037388951974451258963 0.00039136262303876210005 0.0016414217910411927313 -0.032327830656197077686 0.063247015247959670337 0.021350687831414322942 -0.0045285285201360318819 -0.00062526925469002711793 -0.013082998753274588735 0.017916660379564641054 0.064437503279126701061 8.7805903448627097962e-07 -0.0041960426145139367859 0.016227113021869847553 -0.028285259455807065798 0.041208181047011446796 -0.0089383073296231789484 0.040979881198760954863 -0.019039702820279020418 0.00069194699170724153266 0.020852285073138729365 0.0022405318487402057538 -0.0020140204097815628953 -0.0037700266640281077796;0.0055480885838475437269 -0.00016332860580152929429 0.01116745947025492465 -0.027448258835268787847 0.0066378527672266264895 -0.044236936913454316667 0.040832860009261721934 0.0013996510830116435861 0.035569970469845099692 0.023232219112207855988 0.013027822954137853462 -0.047494071111586502743 -0.0048394696637191212188 0.0095986674002551692492 0.0019307323575605485518 0.0098394252137830699734 -0.023623453059727995973 0.00070986585492463028305 0.008215181016211613868 -0.032827286604753876109 0.0034078466431914189276 0.025570224848776426652 -0.053950669349311849987 -0.01259825936116681748 -0.01622256072401884186 0.0028164907690599338443 0.036677913947428412988 -0.0030757098733570375527 0.014622682034785786792 0.0045671548166720437115;-0.001203536976019166805 -0.0062891452824011071648 -0.013825613885606935494 -0.025488057941218365127 0.00018251677082175500242 -0.00028658729036127201248 0.014917507043119736937 -0.0043889803946870120308 0.02888394348661541336 -0.00020968666350004884621 -0.046107732786242423828 -0.030562204576898944347 -0.0061716622863311832239 0.00076411473738772475641 -0.0056805786392413780764 -0.039912833172528257297 0.034827539084983920314 -0.0085001348683825268121 -0.031491266270947296246 0.0014361947163887118194 0.0051964452631024808313 0.054450342445168907479 0.076314564585288999221 -0.02073858372914598458 -0.020061186636117830234 -0.0062174713943052017928 0.0020886624085674379385 -0.0079730711143537989771 0.0016657683256969834686 -0.0061846668840818443125;0.089826620817946484232 0.074444998288458436031 0.33833581388779238042 -0.12973006962318642254 0.12566308966257375146 -0.069589465156311133831 0.0025361407597739396048 0.086587092866454370976 0.015204160844932125551 -0.081303172473685250687 0.019443937244913750417 -0.058362536389416450056 0.011796489904951938318 0.1067724250772306982 0.0070295881471825749642 -0.33814929440090396584 0.0091044167048930386282 0.14704803204083621848 -0.047743740087007345563 0.018539835015107176963 -0.057181609911836669968 -0.12730855293989357113 -0.048676223080612243677 -0.053185977421910349272 0.11072320687287132146 0.11481626336084636841 -0.059206066585207342556 0.10798359319219093255 -0.092560365742777525599 -0.020154941254483565299;0.037968568853859109569 0.092021200339102826593 0.29714280691936356682 -0.14860719270733016573 0.050275903003736868713 -0.024771773472915981085 0.0051247077502363505216 0.0542059342137893585 0.011008469985659248558 -0.053567599492011085116 0.024866194418507313324 -0.06153484024592052043 0.01132705798969565851 0.082706366496035688129 0.0074816312143317154418 -0.29223075233113876559 0.01281308498112134972 0.11343427677836917522 -0.060397578151275936598 0.02127238469296338641 -0.041994110169390676257 -0.0994629453539338515 -0.096105466529104108253 -0.041471060756841933437 0.073818702243367437243 0.12277230738363048568 -0.082192792797673011607 0.090948796966212719362 -0.063376520581632567186 0.07785006384159812165;-0.063429747168487232711 -0.064031963026646973591 -0.19905307312662287589 0.018386367473296180708 -0.075081535368949944842 0.0039085723414763332353 -0.074046533256887384078 -0.092088430353711239751 -0.087671948952259673438 0.010146689479891154995 -0.35071879413100026657 0.0062272367911589479594 -0.070406350646606774557 -0.088711197676568334658 0.032214159616435054934 0.033778698679120609805 -0.072908388509476396155 -0.11690917949190042513 0.011853677626423182387 -0.14384278399474256793 0.0067946621845760227926 0.018747148291063032988 0.0057374048372034981355 0.0094873954606813984403 -0.35685548704534786335 -0.061135910528387488183 0.0041446832236128926599 -0.058342691692613302124 0.015940728164261234318 -0.057602462839676391027;-0.00071345522200433851567 -0.0064066912685626815904 -0.0077006984918263224685 -0.022262189738194812505 -0.0012914675174709726747 0.015608671541511721925 -0.019702489129162840259 -0.008992602072816355957 0.022208729784254210154 0.045065298320688090827 -0.023632923532367552943 -0.027915150781868305896 -2.3744886351872263952e-05 -0.0019090508456697933334 -0.027017470162929862337 0.087002221112456729069 0.0065424963355892882047 -0.0098067137693611458604 0.0027327047802084415522 0.023835147411851810573 0.01773824899872665159 0.018779698361751744062 0.0015146733920952499489 0.003669415653178922064 -0.011450159447374531202 -0.0035175603565493749648 -0.0036084812240208753893 -0.0099809037014958346817 -0.037001555321756723904 -0.0014189415238180669993;0.055149979627279958894 0.06400628402604471856 0.22704287175162257695 -0.013669922512121533698 0.042106263070131495774 -0.0079837117432180696591 0.08404124291162620719 0.10329874418942183723 0.073715476839295177025 -0.0087643436710854328436 0.34270725471793028749 -0.0053879458856602715708 0.0698555056077255071 0.088149102808181889479 0.051202555346536449132 -0.03122151519467242578 0.081321732022736958889 0.12197122573893627584 -0.018217456349359072848 0.12507716639926172442 -0.0073339920944375672565 -0.023663938883385967488 -0.0080411514204109420245 -0.013341041301497592181 0.33670967611527669039 0.075347627320295540443 -0.0021992070196824916456 0.05872091265300189572 -0.016875352439224004103 0.20835068492397912365;0.059256671330108007245 0.065345542098464354241 0.27223663242674367435 -0.17130107547308728866 0.053723701716693737784 -0.060611117433147371214 0.0055706232438710590049 0.07363229099357605778 0.011307215243219478212 -0.10231536994311202227 0.025538736624407781806 -0.038825253535572333552 0.010481089109140204543 0.053940636995203600224 0.0077070440033948492062 -0.27342085669248827884 0.011163085034276383489 0.12233405374105107977 -0.040305625690386863436 0.020109181498573824864 -0.011560653187368492845 -0.10186668862750102027 -0.046444905545878358011 -0.08343304405747624386 0.054794072855005100664 0.089989442428830390686 -0.065528801305275788391 0.077002415979906535526 -0.09626342709305123202 0.073738360510898118272;0.078021091654163016171 0.032053923894997699007 0.23492428914958504715 -0.019305362041091268799 0.043606039505078547647 -0.0066278868821564689007 0.063619202100778329823 0.11089877603355850766 0.062258934878778926514 -0.01362072259323507048 0.32409206414509561522 -0.008206185714897363051 0.066131573020522305129 0.086625685327613541342 0.06242396168263400491 -0.037026150334367007033 0.0818418215110625763 0.13268013906802098023 -0.0095599873069878559678 0.1322698503354154953 -0.0046299232018959827692 -0.021077016582817988816 -0.007269213824430457993 -0.014047921746884102848 0.33867878723851424505 -0.037160018494110630405 -0.0036084326192888128981 0.067019638446997750747 -0.016958565170009466672 0.062614170441506133979;-0.05255128097868213416 -0.039634931202144840778 -0.20196847086288977069 0.020244010294149589885 -0.096632942475488148304 0.0060761894306506636365 -0.090505698298083914199 -0.10492926902268998046 -0.093990797751946950078 0.012052891660383764638 -0.32573382244101761751 0.0041273342863753356355 -0.064227198533678156456 -0.082528190616059357576 -0.068938136415461301332 0.034942492405079829398 -0.075106519732273724355 -0.1194672480942386289 0.015592984892774604949 -0.11677211658805206063 0.0063989221310670075377 0.020770246854686025967 0.0074812233624891198366 0.010190722015851638727 -0.3209008102183508182 -0.080915711259056222193 0.0037321893240091887425 -0.008345015649612305686 0.014907088245166887422 -0.039096175288581794249;-0.0064589300918739475654 -0.0044522066971522103115 -0.011539860941071121078 -0.023896691965586115691 -0.0084811938728091753464 -0.0052456493657099638461 0.022984897822087516778 -0.0036677529452433708067 -0.12453708606487012833 0.0042144202818295076196 -0.0099938817285501902604 -0.01048933837996298378 0.0010217232533013410455 -0.010065111182833345535 -0.04004343075389742157 0.035862021856976837586 0.0029825586240636724374 -0.005063320164121675078 -0.0047044793840054516948 -0.026846922555208995592 -0.004851089178912248133 0.023145527335248518991 0.009909573460481886642 -0.041492450467219540999 -0.00019002946438227046391 -0.0037729199617674677621 0.028072593749376827804 -0.0032130655002590218991 0.02331664090829518865 -0.005542745661731360643;-0.0039711401998688070081 -0.00057532153997191164217 -0.0028647100995645696092 0.022031123881405982601 -0.0041765234417464333974 0.021681905932181427116 -0.029266974885446217503 0.0016927769788052931133 0.031642334154753724851 -0.004330072023913334768 0.029241054250105254914 0.0018963491276966285264 0.0024047654876174101059 -0.0045087944960406235034 -0.067423536666305003417 -0.013303088234838866474 -0.069092032431212729859 3.0381176554781597152e-05 -0.00090914534425932155403 -0.0039966217863202386368 -0.0010814376826230797865 -0.00055679766533374181088 -0.0084069694152847703611 -0.0024004550630135298474 -0.0059423966638922345526 -0.001777742940434075573 -0.0013252879965371367442 0.00172012148385778307 0.033977396693773177783 -0.0053044863753649532795;-0.05036144029759875157 -0.064550313796430239255 -0.27474647481390745973 0.10430633635679610605 -0.056305601474122217442 0.065332551560337320806 -0.007678587312447604854 -0.05083239746811098192 -0.010590489512082452636 0.078562450425306795676 -0.027614292928855171949 0.032163273417820485711 -0.0081967701546448844957 -0.099242528659047243855 -0.0082426241061202571575 0.26630472485041456476 -0.0091499036704018859439 -0.10876708104546162215 -0.039929149416166549724 -0.021022043170988189559 0.062980370295193766061 0.11502803694396337986 0.042402817069211368173 0.046923389634805384718 -0.060991754889411720075 -0.12001901124043734548 0.060694308448320542781 -0.06713998994180817026 0.078113053802600987408 -0.081048713432934890721;-0.0027273026693964246003 0.0011562489249642502864 0.00042628502393192023619 -0.04954497335614591047 -0.0035661473779854593186 -0.016034017353445881304 0.0048845635710458770035 0.003077116957507100483 0.02071797425329738318 -0.072676151856763682169 0.015160555689743913932 0.027534322746798938625 0.0035521764366858109806 -0.0033460574121865886178 -0.012622071217160080181 -0.013965918051911366607 -0.010950672359777672768 0.0027335530325925984363 0.01987003152154816904 -0.029177792314601946194 0.062687866263920158372 0.015973678213189988068 -0.013367885412586207744 0.0057185521303936299314 0.0060985798093290757849 0.00037117201577751207176 -0.018494646071088222117 0.0040893642210680872934 -0.03488490021912275113 -0.00062471379304118355123;-0.0013050708039640654314 -0.0022816527863058879214 -0.0012653003618683022688 0.04837246153265563342 -0.0028823497014310592648 -0.023311762377731012896 0.041368067602322498855 -0.00085868288625397097037 -0.010965424838681252576 -0.028159284285284504057 -0.020909990923830164972 -0.024679177463701004736 -0.002224916525292921967 -0.0016476867074038308112 -0.017871473217999502697 0.0059893297683688822425 -0.028209941054906342156 -0.0018192692776149322221 0.017691442290892884365 0.066330865767409777356 0.046574671851444392201 0.00657798261959498861 -0.0022215763520922449624 0.027552156660916957837 0.0024243176431887406008 -0.00050870166945216099049 -0.02558632652791432982 -0.001760800119005043532 0.030704963993504103686 0.0026755341596645860515;-0.068356664901214780894 -0.051134697211639899839 -0.20918282638778262772 0.020914822523774818236 -0.076702108119582265711 0.005293914975842670817 -0.041708041156948184869 -0.10355186616088943308 -0.015337261543710078299 0.010929899942851447822 -0.34632520030708491277 0.0044151815939395518476 -0.066334578008468814136 -0.097621928367704294272 -0.054912020494652012681 0.032127026840838492083 -0.074971753605665977793 -0.11356002400001420638 0.014537279692522714694 -0.14291363094907064135 0.0053441677909782754272 0.021081526093940948507 0.0069607708575372571544 0.01061168199155437461 -0.34769821062947026125 -0.090818910525648402499 0.0043407691716606912682 -0.012365510301071041058 0.015083433567691878138 -0.062034636259927035395;0.086872682536376810702 0.034108981626774205476 0.32618423012308006559 -0.143518936062244723 0.070680789581110209374 -0.017851614154102971727 0.0030680794829936685296 0.093861832222946847692 0.010325328127197842473 -0.040278160354353602368 0.023190262427013677571 -0.048521155867703613662 0.01184226143546232568 0.064199095513566728499 0.0050407207756805348306 -0.30437445730342238548 0.010753657261369274981 0.15861489032030981483 -0.044864322248986177044 0.019780708730754013869 -0.086853398810639012573 -0.13885092486619740604 -0.051802805600444812306 -0.087410683155715915293 0.066963630336760227024 0.10898786974396348914 -0.038587011433167971164 0.064377672679647099385 -0.076349425949699442628 0.084889480556733176719;0.0048235001770427238937 0.0023343278432660110287 0.0029628864767976344392 -0.043407833418132708847 0.0052433458327436083951 -0.0094508545187225283246 -0.012837855054916556125 0.0021242311783802691853 -0.026901660848129494569 0.008966661145280800313 -0.060595799329144453549 0.022001489354825293221 -0.0098256330648738253453 0.0067866142931909748115 -0.023083536018968973946 -0.027765630748374629105 -0.0081084580990810999068 0.0023647692070766510378 -0.0067381755589470742826 0.031269058613959510584 -0.016634046892773989706 0.0012815856986835431116 -0.044209302976423545117 0.030405479440831929133 -0.0086300602551422477687 0.0025230089957569432416 0.00038605381481414391669 0.00072341547079653634351 -0.0035889946778552778497 -0.0013050083613951170367;-0.055925684563301061858 -0.076828715392591354072 -0.30943402475592418632 0.12410809952845029691 -0.060359242158314119209 0.079112459692324138549 -0.0046008157117216272325 -0.081371520877979081066 -0.013843593566406367512 0.070512665707420513206 -0.026342523147205559875 0.1028253793897829782 -0.013904349879062711387 -0.070707834255492457709 -0.0096774135704967810534 0.29493331425285695957 -0.011306698534671203588 -0.12152704647026288387 0.060284981962326407434 -0.026519539844242299292 0.069206025723720573928 0.14796786488414584437 0.047418231560268087055 0.092733311326185910439 -0.078023558107035845266 -0.1147093369642523536 0.096236563724965723532 -0.087276907940518053119 0.087109712725917651244 -0.075120234331134433381;-0.010169785907491122809 -0.016366869398043496636 -0.060563409947427711277 0.013354750888841864995 -0.0016898370220771482923 0.034316651886342419697 -0.0081770918060451551479 -0.025528413669892519727 0.0038340532242012066722 -0.0033958818681382165958 -0.0024010987324293454198 -0.019476012204896628321 0.00023692743818169069653 -0.014256946567768276346 0.00025684406087275783942 0.08909697887812138839 -0.0055056763182103800672 -0.029055022699744605802 0.035749376257364372245 -0.0042702534277941931948 0.034235405577066405081 0.036876610157498629361 0.021843080489619803863 0.027093264523132293276 -0.012600670044793618046 -0.027321364823179129788 0.039979389739965509598 -0.021771475090402503394 0.034804044422417891591 -0.025678359450234174155;0.097316834102387700378 0.11476601960997055707 0.32154133606072304863 -0.11350167990671394813 0.10288655820065394086 -0.065848646740935448674 0.0059024218994146336256 -0.0031413853010446011506 0.015805880281458531411 -0.072364847347835395408 0.03364505493528714003 -0.049631374488871171646 0.0088795714247489488519 0.039546131511814755499 0.0082891454705709150669 -0.3313495154093195616 0.012350045650445850426 0.18960746535478933961 -0.051458319360714002699 0.025091635858800500486 -0.076868138394494217591 -0.090709516086915478739 -0.040311502060260205604 -0.086884075485567119346 0.075663921850760165744 0.11526027735383574668 -0.082965669201391561982 0.10257863300708812415 -0.062207652639037318287 0.087663717649683212119;0.053681339610786180105 0.056413286323758575491 0.1814556209480513993 -0.010360836276532670031 0.026460637203506633813 -0.0041009033234351661631 0.099234446126146125255 0.11077905488961251046 0.036393944862473832924 -0.011168822405245937626 0.29769353738220860617 -0.0036258085726072163124 0.058532352860854439114 0.13764860047682073163 0.037281007223161147235 -0.03892010134824032408 0.070056299562047619212 0.17625163037662960885 -0.0085373139803459376085 0.12458298290662651875 -0.0060790914536710373775 -0.0180818912775351677 -0.0075667523206722538814 -0.011829873979441980075 0.32091235941156720513 0.088031891974605203099 -0.0028425286052946156269 0.098251825163679501474 -0.014269257518241075522 0.034676015182931937963;-0.0030893683470116922729 0.015613793974196002456 0.034120499173949978 0.042460201516367930552 -0.0027441870153327276374 0.0066008907750243154405 0.016131791823452507062 0.020874587267740624813 0.041617098843503591565 0.02613233388712208477 0.011250824165216086886 0.0048039582660711170614 0.0075694061746568609 -0.0054423958423645557581 -0.0053787599739486885095 0.051324750639829462562 0.036125121950151266315 0.027682282562516157681 0.029933057226709570281 0.03001083892715935425 0.01572852465832005886 0.014421133924952821842 0.0075592234125068267711 0.0053649888842009800169 0.056816841256786029812 0.010764836375695120696 0.040017570217339593075 0.026929705749259406217 0.0042225859973082594673 0.0062761175539158813724;-0.13726781228310733218 -0.11147421615226428548 -0.25375475122630247737 0.02093482639603212736 -0.12032117785149787359 0.010072100390325005453 -0.064797654649798600013 -0.099110473021038342223 -0.063263170615583036449 0.011395964309928544381 -0.31663940161254222616 0.008471583872608306337 -0.064554460093191309844 -0.13106238994601557279 -0.044682233579143824931 0.032268493147559446088 -0.074998367269747887032 -0.10422114061544175689 0.020996026961523309856 -0.12498974965874713738 0.0094186141552924911718 0.027214753197367904519 0.0083041801157593304883 0.013197015179553791414 -0.32732687511005775782 -0.050700938378192388079 0.0021860703800712375303 -0.055404069457410984323 0.012977169144247980084 -0.076592697842154403021;-0.032377849992748654329 -0.045191069490494020777 -0.25466769949824019648 0.015141214381931054553 -0.11585182475583631623 0.0083437106723196746011 -0.062821915609397274705 -0.1360714013741270989 -0.035847956773737595093 0.012307848653366188982 -0.27624549672013204438 0.0052820472600745372108 -0.052888625914598537403 -0.032303326755913054635 -0.030367264063087900938 0.03169494908973725239 -0.047125439917019402991 -0.10874399717457787495 0.013887776985903321769 -0.14868338691748278491 0.0085980238622436408469 0.022726916855279447743 0.0094133470126216613888 0.014117611831238384076 -0.32715261364437625557 -0.061880343586852466775 0.0014034825730210259784 -0.11429049453372075451 0.016593079266982967146 -0.072907076244782334506;0.16957033096799109528 0.14575064263168879819 0.31615574022561937495 -0.12226731694404310846 0.0091053077308768000375 -0.054000317248044008012 0.0096166458156659914008 0.09428066035092860786 0.018818233956637425708 -0.091135001763697931487 0.036142038877904000826 -0.050572522569362080014 0.014138629129668966317 0.094258632554296312156 0.0063942508618860735559 -0.29914973618636653274 0.012783383024367269212 0.13717187146878542792 -0.052738360291369856814 0.031925964239237186737 -0.049106084402485039586 -0.12856855010803341921 -0.071971855419084629357 -0.076147871303731407 0.10091196040664728029 0.1689482670873797554 -0.057114426454220101892 0.056736790770123765593 -0.084066090373915963729 0.058826852959282867339;0.0710962033702472046 0.064593534393076412758 0.20682206026880717298 -0.015908506277107849897 0.080462493438202567497 -0.0047702985520376864695 0.065411461974726137214 0.08196446784845536071 0.049395929256578305355 -0.010336163475110694485 0.33193671269054769724 -0.0042315114471865528448 0.069009132311776882895 0.072476691807776258414 0.043544672369409759272 -0.033251817005462876164 0.073772422252905950346 0.11913006129806084921 -0.0096080262846557785289 0.056852305427756107126 -0.0055302995038325631488 -0.019553067041526532577 -0.0075431279190437787452 -0.010210293011334886648 0.35620893482602694613 0.066795060651592130796 -0.0048149674150163405961 0.090445307055180779177 -0.015084268059443763782 0.067411410234269192321;-0.074028058030605817241 -0.071534313268523261331 -0.19740805793852148065 0.013570153712832081286 -0.063363208316592894986 0.005680104377983702553 -0.080626088263665685041 -0.09192463134033172778 -0.072119785672520364539 0.010465620331021994668 -0.35046569849287040332 0.0060254771919983143857 -0.068032878366882584831 -0.096197324090536717733 -0.054327618201692878808 0.029883349287477999762 0.043481405106877382694 -0.1246811259067636124 0.0086870589464212149416 -0.13697786814176340919 0.0049584233834122646081 0.01964629098512266081 0.0049479953225405335152 0.0087906799751796063647 -0.35166534346117195309 -0.063901161206157949812 0.003775010830764910074 -0.068006622118927093079 0.013585223369546513619 -0.060347119463538802242;-0.028028563672095916509 -0.16375276409758734997 -0.34236890870276653898 0.12146431549435370012 -0.093810496335259882517 0.068459224070230736969 -0.0039557776288637845619 -0.13630171713185829097 -0.017399566550410541788 0.08223972095593036491 -0.033219393749952190464 0.061627679794892496756 -0.01104492052373312605 -0.096986313615211039441 -0.0097732120383419371357 0.32449998975174931815 -0.012666512739376020041 -0.1761075795514962794 0.042902057906843711621 -0.021949827777222982034 0.06746414547178346266 0.10833906623900657618 0.066848554597669002098 0.061695895625115008964 -0.077666690383555891941 -0.077152103010529701765 0.060249891190759914672 0.0040116374300529786603 0.07747701814061540293 -0.066825856174653072705;0.034822908395022653116 0.089040455537755427984 0.31692470551333784545 -0.13599942373421103348 0.049349942573745961272 -0.072432345856204186085 0.0039214058889905333005 0.068083004137866387495 0.012937528160375197719 -0.079647230576652988665 0.021947358011803686645 -0.05945136249318452859 0.010997921355631858076 0.089792247212867673523 0.0084388765115057714356 -0.31707425778916664694 0.011097108558556776844 0.11830873916563991455 -0.080211670330252352046 0.023520701443768037703 -0.0784465116633318027 -0.094473403852303225459 -0.037549563349935061174 -0.069356083493709530519 0.079732598322561104576 0.13818306266276328409 -0.01609974281156808032 0.093593062693961906473 -0.099337779943633852664 0.08289936614371928858];

% Layer 2
b2 = [0.50412769175271865407;0.1481463920299131154;-0.28466038262013326765;-0.0029428732424297571885;0.27593535736573338024;-0.12934240616881659269;-0.27343134580139349943;0.72953759960748310043;-0.12667000017700716374;-0.45403049190002303659;-0.37342147186684920834;-1.0627744649119117426;-2.6130739250028010012;0.37329380259512801032;-0.56033317581845354383;-1.7765911712437711945;-0.36918866131323729851;-1.3172701903251198274;0.10477855508903177739;-0.60078723962116686863;-0.041160479065813847244;-0.68045551353299116304;0.12079322984851451062;-0.12854248845986179783;-0.36444714754365370446;-0.16022071083487143817;0.011866813359534036584;0.74083713263557404716;-0.083887953292878070233;0.61490804821812639069];
LW2_1 = [-3.199815805956680137 -0.52587139247981073975 -0.17219788847076589189 1.1857073364959436201 -0.84486254190556875354 -3.3537320092507867386 0.86251847988378260723 -1.6750001361167532465 2.0303435100447964068 -0.0082620255621820674896 -0.15053068122215410019 -0.22229326197835122536 -1.2586026964234058312 -0.76118369453091661025 0.050327986106184517678 -0.61463779269289675611 0.36890983111699443553 0.55095869188483537204 1.0719786250660976457 -0.12441542311785092068 -1.0242475813836462439 -0.029566033522358953212 0.47919184510703161095 -0.04902211399668836983 0.14456843836393010183 0.073733362851222061796 0.21583383748066398145 0.040164320183812891873 -0.16416243816493056307 -0.15567573928401606809 -0.25237519506025318794 -0.10773432281598464832 -0.65828799527355297272 1.5197164014961583867 0.50532815917353346435 0.12009689549042469603 -0.59905390367369393267 -0.27707768034493612808 0.68850037256625873372 1.049411066625317579 0.13798682909349999082 0.10168463185368531443 -0.27721864623110759052 0.21816969113776366052 -0.072258383196385223002 0.3091905529436397293 -1.0141197010695204295 0.078173636245209898732 -1.1993159039894749629 -0.37228128689612083324 -0.63687046358319920891 0.15968303883036047419 0.082253401409154339174 -5.0246780997371880417 2.1232100588113360651 -3.2022863416060523001 0.22775031808518639287 -0.6299414249142754052 -1.8022665234424894987 2.0729743124735513504;3.7629758452678441216 3.8392026337658040624 0.091511661415782888374 -0.91578828232428655109 -0.35102620464101985664 0.58137909959173594832 -0.36317030453159876435 -3.7530733733784846784 -0.89881267257395069947 -0.20470491653151640099 0.082355382448195527112 -0.47768667369064099493 0.035796910567222582633 -0.82167096996092614525 0.019257551950598330442 0.52468870107693910132 -0.016341137200138078356 -0.09899545660564861016 -0.048588107568104707545 0.71715661788622353523 -0.3172406113247273618 -0.14496999342143937484 -2.0689590565406792422 0.2556811042294483971 0.11661156513862536155 -0.11419991270075945111 -0.35912273103196629132 -0.26529946934777420831 0.36796394556355421779 0.10715914529838159452 0.45546115396492181659 -0.064852340671392186278 0.74775087696280995164 -0.95098829155839370575 0.39274273118581726205 -0.35503819243369372227 -0.27750729242516375406 0.99194345669660932696 -2.3353630156624918257 1.6801407327233337519 -0.68427630222871027588 -0.38456691268315262855 -0.29903582285178154088 -0.35388126515051965271 -0.07223893271234547997 1.1416326285109259508 2.3476227497489832174 0.38921336706603976152 -0.6103055112604502952 0.52567114946503823436 -1.1377617936883777094 -0.012355279483169265275 -0.44761962255164422508 -3.7718945689660765552 0.78288208327426445088 -1.5763008649702068276 -0.72523661499712044343 -0.028444618120162905306 2.55211450618365987 -0.82669645317026940745;-0.21588085302345164096 -1.1730240534832176991 -0.048758493076038300629 -0.35011258356804542125 -0.71708244316125480111 2.8518154233341839188 0.074491424680279791359 -1.6648836250321057406 -1.184007777281119278 0.48145040675539851893 0.027200568008950536114 -0.40691665136141430548 -0.53941116094316976515 -0.6780443032980542073 0.4934574915467670464 0.71799030109864458993 -2.0112929924214633104 0.94028447716819163471 1.001212200677237929 -2.3191292609218097098 0.16523317113667268519 -0.34585669845418065549 3.6198838609991152993 -0.077687567226477877158 0.37548858110662958198 0.058136575416855539034 -0.20807959694134564588 -0.37917369669262229737 -1.532117986371576146 0.46013276788702595077 -0.55349975351478442054 1.1593643249328480227 -0.14584149372208260464 -0.28016786918987124366 1.2036150113243848647 0.74725238805941385234 -0.057956207756087431415 0.94659551266253327828 0.60575160575661146645 0.27117654611173463985 0.82645356544913273211 1.7203644199295322625 -0.0097330398837888465469 0.4445710706824806957 0.027253971979451934587 0.94853640004497807858 -0.37318862309506528607 -0.061062232477865518998 -0.37217073285519874926 -1.8644026435421479082 -0.092124740793931458871 -0.60637756129972719688 -1.0853905677714601463 -1.0644273929186529593 -2.0875301173895079998 0.12602928734823617973 -0.63782653351757379045 0.32892527477751670739 0.15325565763063830893 0.34220904373765770323;-0.076725064806900902803 0.4996319298012273924 -2.0413524038714609965 -1.0885233237419975616 0.34817808222226365178 0.02934577319604623688 0.11610926488625143704 0.094412993376309164995 0.016609695086845698009 -1.5784663512228045423 -0.093120524559845013757 0.13343053735811696847 0.16005746012573218717 -0.9515471890614131123 0.28124027003403034852 -0.95941659677626722758 0.066352435443236656987 -0.18309897915908343591 0.1575738818789614859 -0.10121295814285156955 -0.94069537387666257722 -0.9429519794910103947 0.011370231745930336337 0.33052813657710777839 1.7573580579481191677 0.034212834742098241492 -0.0072989222843621651138 -0.64510916784983340921 -0.81433148163751067905 0.49286121020730278008 -0.92080966252212070877 -0.51860234456933462788 0.014610995611545971734 -1.1104570854817563674 -0.010071595620993651493 -1.5683859743938091125 0.013325715757348553792 -1.7996334186455209547 -0.0038337250206741339126 -0.066963379105299355998 -0.91900048301278969287 0.58568837396859352307 0.0028074807772091622642 -2.0042432831284306971 1.9124016144371183135 -0.075274388902192609918 -0.66539544676185480299 -1.65126444588980692 -0.54937084970072380674 -1.2921247953482051241 0.3813557914180328301 -0.045066102628484226711 0.51581556364087832733 -0.089594413433063055385 0.08121596998504422571 0.077291501882816374125 -0.026723236612357668951 -0.038139173153322020182 -0.0098186241970201707657 -0.45729773752696950551;0.51634938282316722447 1.3968364936467467796 -0.4372343359572292143 0.86249349481419856911 -1.4856835689136309586 1.1533503360370114255 -0.2225602947955430122 3.598353291159484435 2.3989565732145816668 0.10867166890429559578 0.16182933276348668294 -0.65661365164199869682 1.8464694085977946258 1.0255642903209227779 -0.3221652838848536593 1.4536105792083577892 1.272703270388096275 0.14668222645662401527 0.26770840918879368342 0.073473877624240721551 -0.20308574121830075265 -0.024067339268734812274 -1.4891810180251370266 0.09197299000986368378 0.14277366832352358927 -0.085135893395675732442 -0.65105854489717995826 0.17980599338784708507 -0.21009201589678264122 -0.3741269003665577686 -0.19070989860951753636 0.32630771616704729032 -2.6566296718128850074 0.75982028805884616052 0.35901723192744067203 -0.96641414582655948973 -1.3353369247769892869 0.34100795013259266319 -2.2177053299671016795 -2.6729015247698235669 -0.14721134770887842058 0.28902963200341741379 -0.089447880868999171677 0.33617777523468289624 -0.3235433981488521904 0.53269933731714957936 -0.17750571725415592583 0.92930473604291619072 -1.3027754216299156642 -0.18027123646981479954 -1.4782802373990535649 -1.9919804338684619083 1.1752857011762380957 -3.4911997000487127174 -3.6384311650783813796 2.9774386414023363834 1.3074846543148872513 0.64292405987074419116 0.9913652555842156211 1.8718804445907226697;-0.040374293403926876656 -0.6523636259421505823 -1.1787260375415897773 -0.71990344904252645541 0.61305307811189158063 0.022693408054854775219 1.3123438535076239475 0.081524963100856898124 -0.029087488791429479129 1.3998550605835384797 -0.21082295092262709479 0.14072253704929310603 -0.3203944699908888305 0.54401444822266886714 1.3501594988658207619 -0.030810490323022843989 -0.0015092750037116564425 0.57450299194810372505 0.082757156928094183224 0.84984269437320969498 -1.8935559303944957676 0.74792336735486308896 0.018570466387708921274 1.7518474084850319539 -1.8630215616711356397 -0.0051054378034752186458 -0.073175720565254898098 -2.4177246661855020804 -0.88313197413026445215 -0.95106821915713934956 -1.883480221909197283 0.28521080494476563905 -0.08198536416693041895 1.348640825607005489 -0.029137901042355987546 0.31619658646501419552 0.026396936209324733946 -0.18230945596192427161 0.0010885826731631402953 -0.022542542108072358836 -0.31160724045600179943 0.76767561198693123892 0.63947440075622330458 -0.50928485281690560882 -0.88648669511143352029 -0.030261330956380932261 1.7927885106781895619 -0.32113603775322713263 0.67220475537707824465 1.109715382073408696 0.023947537421562452992 -0.037015237610501003362 0.32824226788045440806 -0.069692821082972686297 0.0015212336087127723352 -0.012617151446791173564 -0.049885281931614525175 0.008228456595117925737 -0.085884571540875781492 -0.5412101214316580311;-0.25824306020781706561 0.062074917939239776521 -0.3343218059257280772 -0.034637901740772449044 0.01495946578810480182 0.17383793699322322435 0.018355615184412067686 -0.16998785983026620805 -0.094537259600979320351 1.4990223285847745771 2.5639723464192702984 -0.0035697642425582547417 0.018716155365921062492 0.020467890182211696121 1.0170889719914562033 -0.0084726851472966199785 -0.0010112121372814449408 0.15090668931108261464 3.036783717607055344 0.53205557587444307632 -0.10665815387703737882 -0.35547291132756830834 -0.82583816973245616211 -0.84219499101597561364 -0.14225354371181642144 0.085045022746623843979 1.0708484621949037052 -1.3383873877906338201 -1.2073839743386312051 -0.68938782224247741048 1.4035141269010291687 0.84058470217291925142 0.034208434971271552139 -0.025355500600324834548 0.12097425323361996052 -1.1505521044011441933 0.16549793810705698549 -0.029025753056536044566 7.5910729323444732508e-05 -1.5324829020765879939 0.90638689975425279499 -1.5878235178788899784 -0.0089674305891430956122 0.25759961386562940655 1.8309477543910117614 1.3310114739244904847 -0.0090932296778759632433 -0.36288483284181716204 0.085812369716995670621 -0.35682819843159102602 -0.021665085815208186271 1.3259682676702659876 -0.097551016087828082424 0.020169297877800869412 -0.19068840994139560352 0.036709436913084328435 -0.11519223914241358275 -0.072368197930963690245 -0.015067702264442430285 -0.071334419143255584084;2.5836093877746426628 -0.76269522611868190154 0.26860294501211351426 0.02111024821337055199 -0.7862597127489240334 -5.1397723579525154136 0.55023710519618884707 0.34701203623908594142 -0.90144587998980674204 -0.11878415199342962083 -0.2762495106727630434 -2.4295003949579969671 0.12214568832149837185 -0.4758914858943353865 0.31971644275207855568 -0.64608266373487166501 0.78404575984339752726 0.42621434094955473748 -0.11036450905193759264 0.26756046604324379423 -1.3143949567858681515 -0.52965822023888076142 1.7211139416813245884 0.17114196928743508064 -0.019345692052505386593 -0.16186335162514023378 -0.44419404164527742651 -0.36539958363860913781 -0.24755501609048574663 0.38160653869245653169 0.48493600125152375169 0.10590544557896745814 -0.40656002333222918121 1.1584106982137027941 0.40113865408660520639 0.34179495019084255025 0.6318191672294196648 -0.06947416191499011795 0.57839230285410825338 -1.9885918065344017069 -0.29158418677235647953 -0.085948214937825256898 -1.5485490631292189168 -0.32145654307972154617 0.2284765982234967796 -1.0604636268488021322 -1.0249333585157329729 0.070615319839690049442 0.2694246397907902324 -0.61893055003976582551 3.6597002983168804846 1.9432171059257297152 -0.80664112620045258506 -0.77409386245822719985 -2.9345981926837088061 0.14730401661187389473 -0.32301962356448865599 -0.084833558355453586586 1.6693135921675987809 0.59769387501078319325;-0.1496517877101985472 -0.053464786166260380718 0.27998732880456200789 -0.022620513460065425071 0.028184234726816269345 -0.30644580027285178714 -0.040495815715905256194 -0.14757496415907814247 -0.21481710322980557271 0.41402052822154289391 -0.2648554767448266789 0.076369692079386347627 0.0039224119318100464371 0.053277651219051799791 -0.59413215538805941307 0.051784184255669954422 0.05904701198606548268 0.34613989214434243147 -1.749975049327043175 -0.66235358953528977732 -0.014149490899934304838 -0.58114225737054769905 0.53809213883199258355 -0.74138326698035006412 -0.34266961437010212688 0.17691554231908582229 1.1644873268482327511 -0.28613957504586884362 -0.64906001544857594432 -0.21516727627345022533 0.81000694137577600173 1.4010088240912554891 0.018260685232694879448 0.014153478042539540185 -0.81611911481313914596 1.1756756146258302564 0.46128212882446556486 0.031010125874656107453 -0.22925340967070365061 -2.0088574380123191965 -2.6713935655115590428 1.5532134817986558151 0.049237674689645835602 0.8371380879810031983 -0.8751779798156854584 2.7924382698021825711 -0.073902777769588562373 -0.85541889861415154606 0.11450306867495375907 -0.51126625577967699243 0.032446248457153700762 -0.66808514715674294226 0.66456044297556815525 -0.28388258609119426668 0.58672701237805702235 0.038467649732460272582 -0.81727322826033699243 -0.15732711657110806658 0.0054801012684244469753 0.04081108607486993306;-0.010024115678390847078 -0.12144320612320441688 1.0192958564992262716 0.98457316952183571157 -0.13333305141468002053 0.034935267583529897029 -0.31837276094262006998 -0.0093252192600472381262 -0.0043473121248825200014 -0.69608530843984983694 1.763743491936172969 -0.27503915971169284882 0.2168593602888749805 1.3892770973979440274 0.68027162738392366048 -1.5605868117340335743 0.091069454779859157489 -0.055839882938532078849 0.050559882285249900524 -0.77305681959944616555 1.9977813916099731451 1.8921840701569643262 0.029993828458318987085 0.24188345623884871527 1.2964711406107221059 0.037478300067902800552 -0.35524042494872432041 -0.1680037844245484413 0.48845788115424915166 -1.6759293081410797654 1.2299702324815371401 -0.04680151129835442847 -0.046168089317927825388 0.97165858424056195108 0.0097324948517138187842 1.4227416476791012734 0.0036431987572350813323 -1.5341523257459153129 -0.020982247103137518368 0.033273122499639755378 -0.19407876642317486993 0.29276397171534535024 0.34298060102589850162 -2.4293127467936495023 -1.165647396240790501 -0.069054161474431760559 0.98410481965230056645 0.73810648076580021026 -0.32686438800304018493 -1.62857435412833218 -0.094263415147926077342 -0.033241309066297075603 0.61020848424161489021 0.05273283066741404207 0.0024393998744413622828 -0.10744172536149679265 0.093173012184782563749 0.0091664456818783424802 -0.0022901376440876827431 -0.062040709335268062752;-0.017331729665339176694 0.28522002751626468475 0.75298691540296691649 0.10452391100604427332 0.12569043420811476519 -0.20045741575691997105 0.1503069600321674526 0.15791996735484858938 0.11724602636365648312 0.77620820419614444674 1.6832285862891547268 -0.30359877203112145549 -0.014943782534393582409 -0.0084107779823758624382 -0.038466600814501310246 0.041633896175623262559 -0.43392197904931689711 0.17877760198725647922 -0.13497577842242100554 -0.52893589782659344856 0.027287646981851498146 1.1796402152043767853 -0.25495752703056795418 0.60303405392974129828 -0.30222545285091478862 0.18081020109201861867 -0.85430255187996939625 0.46247283830219304557 1.3902471552593569371 2.6981497588021849943 0.65453859754858978448 -1.339948410245020316 0.04653725439100451361 -0.036704217709449600548 -0.23489105286193198707 0.32922763628272172509 0.1089597537282471218 -0.10321080400597483495 -0.011329918314479922592 0.022750645932886382622 0.24700574773249292515 1.6115919735526562651 0.015464013824605164077 0.18107353059379946436 -0.83204881041643852235 -0.38809642968597601875 0.022650500496526022182 -3.0391042072743799096 0.22169975882926867827 0.1624373970661271982 -0.013285193484569766953 -0.37336311692817353292 -1.6378078247610567963 0.34293987031699801893 0.41381127063948186517 0.076636962462887037173 0.52771842015089875932 -0.30819205843865826733 0.024005362042716117676 -0.042024321644332111869;-0.069554396679874910814 -0.15811161383120345136 2.269510186777608407 1.1200668903216535188 0.22008705685179907885 0.016341033858025655334 0.25223239182525963864 0.061041424559165113894 0.043429906172248705643 -1.0290591822494696839 0.46486218474132001699 -0.031929247682173748923 -0.10763662815482613611 -0.47400253294507743718 0.8295674858525633466 -0.062254696243753349094 -0.050709488958656442903 -3.7697764019547692627 0.058586058894830123078 -0.14889463199020480655 -0.46570993384089443001 -1.1010547145946276704 0.031752740463478611177 1.1837181407409953504 0.54132804103829945674 0.072838459701406205182 1.2143312482118098217 -0.80956829363706461766 -0.64861791956526382297 0.35077224758558150919 -1.2187304635075206782 -0.81748377559562690475 0.057079004588179320379 -0.26944448118408748094 0.033820603434526329278 -0.44195240902699300944 0.038746912311505649074 0.80469686487125102747 0.01008699591406820445 -0.062620651479415728735 -0.13575115455195801983 -0.029341415943389796001 -0.29801343713695366278 1.0821694324877111359 -0.95523045688894736571 -0.052361633918019311051 0.22729827708579253276 1.2311712451607461638 2.1194912328750046271 -2.0874559414728386386 0.33618905363025514133 -0.042143412572387614623 -0.25327824136178667125 -0.025071977866613737868 0.11665603688425181528 0.13966401881242043737 0.062066626004039469888 -0.030111804067255585476 0.13515169903408927321 -0.073519717692959979383;0.046648593394256913924 0.043886778354584557449 -0.072377683825052427369 -0.076828173301540833573 0.049994122805787487296 0.051300175385678888074 -0.062540780997520015183 0.012314563481201216619 0.084019371388292171665 0.092148549867863027707 -0.097762073962558398987 0.031039495491885303602 0.03127116709915677556 0.061444034018727389235 0.12350189347154878761 -0.011307058387144356543 -0.009544990095202491448 0.56040810173415511741 -0.080794374857994386008 -0.83143549312469433588 0.071998999849863506983 -0.22905934943851771757 0.05283727196702497908 -0.18432970186757274833 0.089342664800084597987 -3.869575709242813133 0.19970397663196345905 -0.066018096234731163396 -0.56370357515683733318 0.008344741921241002891 -0.34618808682690993539 0.24919042767474930411 0.065396105917214855663 -0.072153398318551359436 0.17728221237278909972 0.46691199501840302544 0.15312838366542100288 0.016334533358370935396 -0.12910611039689634527 0.019356561022645255021 0.44361784655542152445 0.47656444010404258593 -0.0274804375954268848 0.15346518872996309235 0.019441312021975312718 0.26593979209754681214 -0.037143986201616935316 -0.046594804062115115217 0.061703686051720087191 -0.52068635327563350668 0.00050596437137641141722 0.10642265067728259864 -0.47319784573541601169 -0.16902761213986186584 -0.11468457625990335913 -0.024379664409546492748 -0.030641273190619433553 0.032452592166784040295 0.029062721227557306025 -0.048462919032414765452;0.4890862351240444772 -0.26698359928308051936 -0.20583734226928468436 0.086346815329527426552 0.78735308790664770839 1.418910568268008543 -3.5669550350356549195 4.8597434384033446619 -1.9191500666918634987 -0.10740515117872942441 -0.14019595840025897426 -0.17600502744142124123 -2.4094736309052113832 0.36452718580749354782 -0.055972070239968599314 1.2929783437091284526 1.0350309972614923915 0.96274186411387363549 -0.72269453331859134781 0.536002033492813168 -1.0569944558591675143 -0.0073596117192034262583 0.97499288720814780707 0.16036672986648900507 0.051396391531379155559 -0.003784331536768140939 -0.28707529148623350812 0.13901829785683289531 -0.00059617726879598702261 -0.32756851732121577969 -0.012137552527315192616 -0.12392751533996800017 -0.7369148565548819807 -0.30661802515775277156 0.066520235779003414334 -0.54663130728833286831 0.24146493381302186476 1.3930589313132319962 -0.23594260676808537225 1.3524959862080083717 -0.090942809796646623122 -0.097768063939360383419 2.5446408358822418805 0.17630921732833204629 -0.22606696360754172104 -0.46320749159938950923 0.5143782223880116744 0.47342520345956762284 -0.78366538161993026801 -0.72752441045314386603 1.8015373111166981257 3.3588388428266107155 1.0500002959534953106 -3.3231906067432221974 2.3464148560685202938 -0.1687683207488702708 -1.821880122217359288 -0.24512417529846350361 0.2714884902651570342 -0.97750234865040086518;-0.17917005637867494672 -0.044168195000634256908 0.22215630615251885649 0.026405079711878449988 -0.00905348227466921604 -0.075395389536303425437 -0.0092448151387972462428 -0.18812906212499067027 -0.18436085729954374002 0.17854104595330519412 -0.50326705462271392744 0.032934243954294561973 -0.028711734844783343146 0.031220953755552366404 0.40113143583293481287 0.017900123488792992615 0.025762512747851223222 -0.065374373825165477125 -0.65387921990919661841 -1.8856082246968814964 -0.053476047040229283958 0.029946054584645477592 -0.784029518501771161 1.2626760586059124769 -1.5862447238747880984 0.017406476936790950955 -0.22762832168903829322 1.8067338335165794572 -1.3682261334476983894 -1.4188235667890689573 0.097900143097988390206 -0.36058306486459346107 0.0057351565791252294771 -0.03095129982189001247 3.0477401734266393873 -1.3440775320695084183 0.023856251042317418859 0.10784316412070991953 0.34065387567548505166 -1.2636014331398057742 -0.55425063586764222734 -2.987185657831506358 0.0056748869794834870192 -0.17840926128411216389 -0.41715140887290891314 0.044931983548667883688 -0.036476574302313241605 -1.2326290892534617072 -0.048397290393743672143 0.045720827578138653613 -0.015785312513632264453 -0.055233231656169959334 -0.084414381842733185457 -0.033323399051509855484 0.17014867156262974968 0.021439950734023278944 -0.27235095563179251288 -0.22120879604255286321 0.017499934317883224927 -0.00069657051733251177002;-0.032085201416403683061 -0.36239081613961005024 0.96421072180740963198 -0.035016434104610090483 -0.47764988009578251971 -0.16461177332254472994 0.14562802328817622821 0.10698142335118267232 0.059622603567572152183 -0.61133368145786526338 -0.40772977405650606686 0.25460398777105053281 -0.027889142770906091146 -0.06134908593373599589 -0.36258280354539001999 0.11502483794419825214 -0.23654940172406707655 -1.0947704023945070695 -0.16464195694779201751 1.1377209834936139465 0.36037252486483634106 -1.825800002824257362 -0.12124145306937764155 -0.65720911732356201984 -1.2649634489858661013 -0.037499551883215472003 -0.52537471379315814346 0.65893959451075378997 -1.7375170145190899085 0.57282512101516402936 0.26793374218914345342 -1.82022434893173779 -0.15144874075717773554 -0.11414760705924503759 -0.06563833081387047963 3.1631809169666080805 0.0063855197838796045468 0.13265154388737679381 0.093581799597333578666 -0.028538165115131790273 1.0434447734747358538 -0.77992915044603949859 -0.14966390786270009072 0.095346743943961115297 0.12384362222747145876 -0.036319726606704877403 0.1712474667127952821 -0.89739943343319561464 -0.66186209342061008698 0.59832339396412947963 -0.10938390034235165316 0.032873923441206188978 0.97928780435276119309 0.11619568324331557008 0.21230001216286736865 0.15848262642626831376 -0.027701540429209411259 -0.018367256259166176574 0.025758936244438992991 -0.082512360563748651798;-0.17688641270142235751 0.016459969546497883047 -0.16174432261378651754 0.015444794086879008732 -0.026312738467809425325 -0.11860101964634126026 -0.0066585125207462431129 -0.25017837279919580284 -0.070549446051200906393 -0.015124619243671939134 -0.5945703164759049697 0.007825051990680339381 0.0099858040193246382782 0.022948258554596086961 -1.5383298901770718903 0.041982755605779235875 -0.023417027950655134455 0.21178529931368020311 -0.21336540135812231966 -0.45233708317646459385 -0.022363791810304220475 0.69944716828776276607 -0.55982280953325969097 -0.78597493505258619884 0.15888969987188666932 -0.021670925954538292763 -0.10708727247164413765 -2.3785146752999057895 0.065582788200931926847 2.372854684186781693 -0.902350947552985172 1.0769764525232377039 0.0049687369822307017944 0.048034050460048501041 -0.18105982186484356755 0.32378902624333211202 0.13333580224452223906 0.010148822489803872859 0.19858510196934486824 -0.4707998255726897896 -0.02735198472738424591 -2.4198701417636576672 -0.0020458758976157906742 -0.075681874417059105675 -0.64931510066856423791 0.037136348348798281505 -0.013826128906214110725 -0.21822271491962222378 0.077686378243252668385 -0.45852131532363804567 0.010788404367944584225 0.49228592628072181947 0.71118261203290811245 -0.22884752052617590712 0.21053983203769857657 0.006790782223921081745 0.059683742908872974842 2.562247063313810802 -0.0073574616946142871315 -0.048327057726030478446;1.2450291248629554719 -0.77497648949287689657 -0.045895670698919525943 0.85867475514749203036 3.3988851000017734627 1.5131391304989640911 0.22229381681043253183 -1.5332288467625860839 4.6628474057154543075 -0.27061535330149000256 0.080293573322744407617 -0.31499296709017460261 -0.86168997814574133098 -0.25809472488247697797 -0.0078583377463235497967 0.36029236847758849827 0.75864924855309034957 0.3032830383155304399 -2.3700046184242835601 0.069237430299788224608 -0.18147490157041443193 -0.59275967498711479298 1.7354962519446877067 -0.069864775059163136683 0.17319852237710670062 -0.05746213036105111277 -0.44776057387034168267 -0.28965081315061452782 -0.33088078891160155326 0.039263722562528219351 0.17039452579979072477 0.25275401496920235633 -0.01384885749284651274 1.0065592301811385756 0.6727530174799177809 -0.046266543519296064735 0.49688995970295191107 -0.45984799945488041839 0.3770853203458952585 -0.87989081744925012885 -0.27706798927814157985 -0.0063744792017564888553 -0.3578881137843302751 -0.23478223491925082067 -0.010642554531526118508 1.1352801065473021591 -1.6454983335879862505 0.70633501167777301699 -1.1577527225855730464 -0.030143828995010876759 -2.0837093064897262984 3.8219189949655021366 -0.71099076129048799366 1.0816739156003929434 0.017924036998717429031 0.39420285535308480229 0.36983630389552835105 -0.096947705820087479167 1.5730310892749519436 0.92668247478202037115;-0.047272907699424243644 -0.25091081426438310853 1.2547949908004116804 0.046411966679848259965 0.17037667861181129969 0.07534017186987065906 -0.011107815026262774991 0.11543934121644976176 -0.05504235361010956229 2.3576007642566212397 -1.553981786646747576 -0.13220423718356161258 -0.18308167117146426084 0.20239214212997533315 0.22547623671747293872 0.059721064571699893075 0.13538295188222065901 1.1509015500716752722 0.13345750470138248445 -0.09943091272110793355 0.93217379324373350613 0.71487219780751420917 -0.022400151217601544512 1.3391785731749854538 2.8336270071216174138 -0.054587484234286200169 -0.39989677679705992741 -0.50489182589213055241 -1.2388110699656773583 0.1213070619747943224 0.29570652184713652755 -0.95367052166933430346 0.029162529948067200669 -0.10654432705249664015 0.031123745269204330238 -0.20850985133908869762 0.00080476536445939737818 0.12954703014344018386 -0.047511701737043006422 -0.05258129442050926694 -0.49941009503066352559 -0.46919560601156967694 -2.8338825575417758706 0.87754136845896590913 0.48420398443907930464 -0.063747168798587910965 0.19636377659776088622 0.20883910845997127881 0.15679917500664128371 1.3824414102547306626 -0.031957549966108722561 -0.070275619931995464418 0.97716032019361342975 -0.090721226390309592236 0.032618521183563869981 -0.04820459722067501479 -0.041142370104166645084 -0.029624620108678747371 -0.089213719298642205069 -0.70552481699166180729;-0.51389723063573622408 -0.0032836352460048679781 0.52460052154461789264 -0.01891116597706823943 -0.030731040505879964053 0.14795902829129767286 0.0049056012057191317188 -0.33039476514089360926 0.17258356482332987136 1.3098945358805769157 0.55265540654688904976 0.086156053297708201644 -0.0417917535738718815 0.0046137826346001210159 -1.089431486413903416 -0.0084145478870669473265 -0.012560584306967732121 -0.022174972086957272371 -0.35355708081595987879 -0.54234425489209414639 -0.034143959774794951922 -0.43711823950111139414 -0.91746173238631112401 1.6138720101470525048 -0.87204548133137660404 -0.13961080009593057616 0.17615251510033311244 0.73254113268976728257 1.8077497903687345104 0.79252537983502324703 -1.2616666273004015775 0.40411314181164276205 -0.029982461847321829201 -0.057560647594367041202 -0.29240549982242242111 1.5786130731327614463 -0.026095465481010333975 -0.015688565798997435724 0.040603743994905912296 0.39244303097419414028 -0.77906125279921456528 -0.33974762514527268031 -0.00084226465781619714191 -1.1622933371744323949 2.4671897383059353537 -0.42018483882767210247 0.014710409088776920522 2.1746090789663781173 -0.064332340910035742954 0.20270992369209722694 0.0083969613634375436101 0.20317013582845380726 0.18283265158889006052 -0.13179655810763277191 -0.774250249328281126 -0.003021536524389065604 -3.3801318800871085202 0.050835908656825655461 -0.012669291023266884139 0.025388110277860406749;-0.020773126170715826289 0.38899745543642605394 0.53156827565393427459 0.47243256033484959389 -0.042855590235261829812 -0.01295721654487730877 -0.26506657086059759454 -0.013405320676950192166 -0.0054814494047865126858 -2.1852193035951090749 0.76115947825132612703 -0.29879408699381748704 0.077757022767944994346 -0.1863284456269623246 0.37554569842917706612 -2.3240510918168588717 0.0656301901476454147 0.81370587214978606916 -0.0094067066112925624977 -0.92739358728227683226 -0.32201874032629207445 0.27900220689782923023 -0.0071155182247407159843 0.80231806127598903622 0.0046253690294759692431 -0.019456523523919033031 -1.1893841426042144338 -1.5288017718293200886 1.3476769217705351078 -1.7967495630691292519 0.46921712125848658026 -0.047923957225297304785 0.049413878870071301086 -0.060077470039121276535 -0.014214568032103844231 0.52996735099332592522 -0.010322072602304157782 1.5589597919421407379 -0.029382042779408451549 -0.017175233728487032669 -0.39806993612082947065 -0.6800954615724388308 0.98625509993789650665 2.334448368600325896 1.9234398317698773173 -0.042596188691950774563 -1.2647093609781112633 -0.8597253343527934133 0.74626010135737397277 0.91462512543946727916 -0.33424468026987863567 0.0025386220163111788972 0.42423257309731637887 -0.0040656474480597589241 0.004230057557278244125 0.01134426612316473057 -0.038091244914269878352 0.054952934243873693965 0.18841200482656197956 -1.2984996047610684045;-0.0071471500252409799966 1.6135523770705575419 -0.58374362020104497706 -0.73964088724879484271 0.50203874158564176788 0.0098509620060192523705 0.77509903726629092446 0.05375035287245578941 -0.012282927889369243957 -1.2505999125155840002 -0.51278919767529107521 0.38052430873356873908 0.039749271205252234562 0.84003549495579576956 0.51721103388029054937 0.57514334055572857718 -0.08361366056382424361 0.82204767707713166658 0.033419145116874202084 1.0161553479517457799 1.7933317072021435212 1.4252137594945728516 -0.035538252686049112694 2.4086720971295885185 0.44132797724472500045 -0.055746886423293111334 0.97775590734148598582 1.3095946732033294513 -0.96783134459505471003 1.7321895494755974454 1.1390708082941867207 2.0299358378422120985 0.12435345415769437361 0.77555361290555302478 -0.017416997540920069187 0.32547567198977223057 0.026821601786696017827 0.63618545051448105454 -0.0010332441072499784322 0.0080259523098606018465 0.68622886862346477166 0.28967405345975666409 0.3760317762737927505 0.68138878116589296496 0.058068470216141539197 0.014717179805431033005 -0.69605430083428454502 0.93759652592100739543 1.0653714951509865028 0.43099241167242435813 0.65284036508803211518 -0.02566922069112949345 0.12356079497587282856 -0.03098210579565428141 -0.017361379674603182044 -0.09406978099719758013 -0.050248169250905735939 -0.0068023182121587826357 -0.32533841531108775857 1.1815684219647781816;-0.0005761739618938106159 0.16281221744286064612 2.1464628834518628686 1.435560672464123888 0.31731598083447831726 0.0094166324392500819207 0.57768861269032778516 -0.026067308707065917073 -0.00027942938178432820233 0.097522717047198559381 0.060420452752389330886 0.40016640856157997819 0.044386618464920341021 2.2584532307297302545 1.5765082462821862208 -0.035775533220315597349 0.016478179163763696097 0.85756266315926188426 -0.042412972259638970218 0.7380843253601198084 -1.3826828662906283096 -0.72753219676581926123 -0.00026409320838299859451 -0.5057792649571147825 0.84089461874567361654 -0.01051675535945321982 -0.61287290913846570461 1.0060612866103963992 0.35098196041699902814 -0.14785292871694316608 -1.6642820660103316843 2.2466063829575690924 0.089741215999508489043 -1.9524249302092855363 -0.050323570116721123846 0.28545656992477930203 -0.011705778850734822882 -0.12896281627473527021 -0.023316540240514271876 0.012573098559230005619 0.012293581311674729034 0.0019289782949975103898 0.12370750177820646898 -0.72909206164130591077 0.15606354752694709398 0.015013517805779221653 -0.077237603885463398945 -2.4773464123876074439 -0.44943876233467577874 0.58434645935923279492 0.48627930169118555037 0.024699511444582000069 -0.19769195210130485751 0.031261781279813015411 -0.032360983283103314512 -0.31529249178115759111 -0.091597944439317138809 0.0098320369754345080665 -0.002387689387245395603 0.85231384019090206117;0.041698798219995308889 0.49268948383955069037 0.24443974463187242985 -0.25218345734849112461 -0.3108827446999439803 -0.010518114549996151336 -2.0110278235069349861 -0.051460447492074977427 0.0061290454628374520241 0.36228033437604573175 -0.25265295059585801685 0.39819289637869587084 0.4359523268905642901 1.4933492943984787438 2.9126742180519462622 0.6321532976472099552 -0.075426278541121355437 -0.20659864865276320045 -0.046846256887672084457 -0.39027933546485760186 -1.4687347842263713815 1.6649899693189265104 0.021076685624458930263 -2.1482010498980388391 -0.62892229992718828857 -0.0084398331265559470293 -0.42782552170543969305 0.59228746927718067816 -0.13297761081191297738 1.6033384368430647626 -0.25384135243899047518 -0.72392866292523139204 0.44662528644651083853 1.1748188107225363552 0.017544745728138366053 -0.0029825000953918484083 -0.013427147053412212541 -1.291555851938037236 0.01058996294087455152 0.00038202270398720510145 -0.74329176197206270338 0.071624536797640733776 -0.60755111447319254392 0.17836521712362882197 1.0935445372341450199 0.01968829585907140578 -0.73421143907733865674 1.1452661510940727041 1.1898349984203100416 0.38949747553019264945 -0.4025241867661418782 -0.0099067809524176660141 0.041096544165174671293 0.040128637390055045542 -0.034377354094641453253 -0.26307340115515270851 0.094093003411153938731 0.030682789242040806044 -0.057743822546266823648 0.012336542992071614783;0.43331108719923838724 -1.5227049633412008678 -0.58044217931673802724 -1.196247853895121338 -1.5364889894300048923 0.33041035689500947159 -0.62327948875697958275 -0.49970006142853329312 -0.52534635682970276527 -0.16657353601188332193 -1.3722610003875528317 4.6258469168988316511 0.14895250910673196731 -0.93005799918932707815 0.13636966658185104007 -1.1102057452590861075 2.2414997740827602435 -1.2772842111107565177 0.1227762114503196389 -0.35493395004236338863 0.86086940639757181248 0.21934749807978201619 0.32787997330980406252 -0.81855659958924620323 0.43377147166640916964 0.61091939657567140287 2.05606678603569204 -0.2515736598643285582 0.66973103694707769584 -1.6418326373452889477 -0.55268072728743433686 0.12460178770565100148 -1.0412666894470878898 -0.076752916894678654969 -0.19289309711321089846 0.61555299970151589051 -0.61183823966386907678 0.89444611353451897173 -0.089681922928540422357 1.1109049113764279948 0.22904314571563519354 -0.69614883689266748856 -1.0822322559027617306 -0.061027721353505905155 0.34009520073464721834 -0.70500684460101514794 0.56739056417415489886 -0.32870455147823157693 0.04743278687706057456 0.46152817744495522323 -0.027705970073128464992 0.1408882779027862131 -1.835807580908069836 0.91156779353744610273 -0.27497146834342051092 -0.64096710432414749636 1.9685180665023203073 -0.13994110106493487522 -0.17883605856909290388 0.32805913803124808759;-1.7943798280667071499 -1.2432839424898463054 -0.035751241752477291858 -0.83987405396094216847 0.71435464649934898862 -0.65365827789841157713 -0.12496468831973406299 -0.99761879684619414466 -0.44612399934154289838 0.39701920342845209433 -0.30625712513341979415 -1.0637751471664997904 3.9795450631736293268 0.090696841513529136147 0.091636008481012901083 1.4020177310572972118 0.5568169845284859365 -0.40113889559950066666 -1.0681090630761267413 -0.27091597477798640137 -0.48901166477496005314 -0.1439722108395693756 1.4060341906189761652 0.088885332929529936585 -0.27997911866912900125 -0.10408830928921349035 -0.77000531506807179394 -0.057511039999789181909 -0.33008700062921186857 0.003561450286770802276 0.23244651519168768594 0.57894769069665663608 -0.16450752216413672135 -0.87380109942994366179 0.5243123450528424101 -0.30591869639246438428 0.82851536176944939882 2.1857302156698961149 -5.8814933787550751632 -1.5207678469736340965 0.15720262290526743065 0.36122849407160328994 1.0546301844615091348 0.30278966851103455982 0.10255016087126114788 -1.2626410382197006399 0.65801637437251092599 0.40101213043254757551 -0.68461311795680157566 -1.8372402222245411973 -0.0047121275780408321959 1.4827044319634417047 0.85005001494605159085 0.69656792512494547509 -0.076573179620433695636 -1.2666093942723135601 0.10557683691069952303 0.12912948252877526345 -1.177919035330891262 -1.3898323307175410868;0.02981093182269209732 -0.99678742875279280344 -0.082208988697620166697 -0.13433095872493949763 -0.23053065694185506662 0.016823988380269737364 -0.69490951739152551081 0.032496204328986172394 -0.041408215484963151187 0.30987544913084341669 -0.92541002180219922302 -0.32462148673553914424 0.12822870658263968435 -1.2095470120927163116 1.9702649511399119575 -0.57744708702187164118 0.13890065162481635141 1.4598689615898310379 -0.024255607850888313143 -1.5156023408992009838 0.26438164504699873669 -1.9924300258926008755 -0.065784833167584502722 0.57322848775193135928 -0.20179094256159693654 -4.7572694627544785673e-05 0.68086954122922671573 -0.49060019053033493419 2.4255777102387647837 0.54861542161370302484 1.6640766183978827897 0.069680397503732324771 0.021297778766722796212 -1.1499605733263316143 0.037600363674187925467 -0.80122731319763118574 -0.011631983916254567263 -0.14169773416825104384 0.017415794188778744439 0.045055831434752828535 0.56795785776279861246 0.035688565972860290809 0.14156614931390318346 -0.71831541629351958189 -1.0993890429709956003 -0.080713291793199359869 0.9143911000311594206 0.11877058893344885626 1.6403964977749390108 1.2367224576047237683 -0.59376406050362462441 -0.088111267265031587015 1.4108532799477524478 0.072739267334364476891 0.028421391184929381546 0.084552282458081398642 0.0079205514276668460144 -0.024749031741209660817 0.08472401658187517226 2.0497479381835925771;-1.5003714787353594762 2.2784172672399090054 0.36729472987776878856 -0.058507447581001882642 0.1606596030200622971 -0.79879152441321388256 0.18416226597040433188 0.79070712106694052146 -0.765959859307750901 -0.25033969846084896949 0.22270054376089598591 -2.3204551328920728359 -1.8522789584294669929 0.71700777639177282197 0.19128563869679757192 -0.1865171224133097827 0.16760651573989077123 1.1264036197976980969 -2.4181229574128377813 0.10264268229698986223 -1.4582980757594394827 -0.63633261734200530224 -1.2735620198991752794 0.18093154455918675216 0.1433801865547547072 -0.17608730677346037807 -0.42710991756117305806 -0.37751947251153528118 -0.28574418216038566243 0.56727238645032806996 0.40342067943345688574 0.15415179164065440087 -1.224196045922013365 -0.68422667969501116403 1.1645705639773551443 0.32950161591083854118 -0.51673482518653945927 -0.018501422180377848081 -0.67651901046086704294 3.9060012826837664512 -0.34054158216124708058 0.0083697037200329716528 -0.22998909352515883864 -0.41017249632725594211 0.046479754712577696363 4.5921669712388428763 0.87366547255705728769 0.28224641757022561617 0.21248997451441711815 -0.078058974684160842283 -0.27958999605685413981 2.3206432609481932872 -1.347085476580122787 -0.03623868693587748574 -3.033713822595661469 1.2808789822819726112 1.9718400968875329227 0.37095378361755848573 -3.0514517806305185843 -1.1962464908272469888;0.0010147965710397886894 0.49324550380446424702 2.8058955666599967316 2.1143926042852885239 0.1429273569387840559 0.03037409699147460701 0.076803263052090689489 -0.039332737614719767705 -0.014921472058848379155 -0.67156680100200338845 -1.3247804387446262542 0.38645841894993526733 0.064172938012438687783 -1.7432590026243495185 -1.0758475576940811358 0.95003228649439985798 0.05037764547889612976 1.3830517516844638148 -0.0040395543406058125394 -0.28448033258790572653 0.05821006782424120729 0.62506129695015988368 -0.0062222225128091175617 -0.33881250546652863509 -1.742969091405403681 -0.067395106886585717798 0.25231782892290277598 -0.6679264124199107977 -1.0934005172979319731 0.14313282855283174233 0.96512296355278115456 0.24767596925709930988 -0.11379631469102778618 0.33741335909627667711 0.014694319926527759854 -1.8087646545120876773 -0.0071449222014244367571 -1.413084880642759833 0.0068711619560772709339 0.02249305098743031861 0.96330936757663065961 1.4825396908680379404 0.61336295431054033145 -1.4996081130102947299 0.85317247108235860775 0.05669807770997151164 -0.24311013376522408458 -0.1398844124446571302 0.41701369083365358303 2.002989057039268328 0.37357252775735177996 0.0098727559320246245644 -0.058224021992339704268 -0.0024423548744189672345 -0.058177877708806641222 -0.10025793083252432236 -0.051010849131334148887 -0.00092287721964330647964 0.045975946485856594714 -1.0621709628766957678;0.21381916323777275246 -0.6747646015831412214 0.23578259980492646819 0.65163951707102762967 -1.5547050241159163786 -0.0016700306896979700416 0.94713416675697825742 1.3313181745946578438 1.1845738691316385349 -0.096792290231161690062 -0.89112374062431320976 0.16236015965019245932 -1.171039224821941005 -0.069537390509044172404 0.35801660903467963371 1.0407573318479481639 1.7663974946580787151 0.77270874993896432326 0.12469788437138798476 0.94735198804277276352 0.58575940314945662557 0.28408908822157091789 -0.10232627038679051323 0.3075436453998127706 -0.093460048675188159284 0.039816118906368137831 0.45901471181741121397 -0.30154779921992275193 0.8917275566618534377 -0.1321088557458089674 0.35702367299949178125 -0.62673309219797013192 4.8908079257416963159 0.55144086504860390097 0.51911991218114172941 0.18866853038667305564 5.8686157193265939824 0.45978464581906147712 -0.70058891908460219078 1.8430102768557576898 -0.4934987250857493235 -0.85164524214010195458 1.4071286025021612076 -0.17550453310858810108 0.32412904430567512915 0.21206370271525770699 -0.36667024341152643085 -0.66588913154123474669 -0.79552380982923220909 -1.3807259376675966589 -0.5026079937454606128 -1.2256747717610811943 -0.33828988141792581956 -0.49006866818848493494 -0.47933399897620398988 1.0404063697385013132 -0.22412951895029092908 -0.045678146437560816773 -0.28321966269222631496 0.16810645564733991963];

% Output 1
y1_step1.ymin = -1;
y1_step1.gain = [2.63942777205902;2.63942777205902;2.63942777205902;1;2.63942777205902;1;1;2.63942777205902;1;1.00555063953021;1.05070712589573;1;1;2.63942777205902;1;1.10933002013434;1;2.63942777205902;1;1;1;1;1;1;2.63942777205902;2.63942777205902;1;2.63942777205902;1;2.69168135876075];
y1_step1.xoffset = [0.24226;0.24226;0.24226;-1;0.24226;-1;-1;0.24226;-1;-1;-1;-1;-1;0.24226;-1;-1;-1;0.24226;-1;-1;-1;-1;-1;-1;0.24226;0.24226;-1;0.24226;-1;0.25697];

% ===== SIMULATION ========

% Format Input Arguments
isCellX = iscell(X);
if ~isCellX
    X = {X};
end

% Dimensions
TS = size(X,2); % timesteps
if ~isempty(X)
    Q = size(X{1},1); % samples/series
else
    Q = 0;
end

% Allocate Outputs
Y = cell(1,TS);

% Time loop
for ts=1:TS
    
    % Input 1
    X{1,ts} = X{1,ts}';
    Xp1 = mapminmax_apply(X{1,ts},x1_step1);
    
    % Layer 1
    a1 = tansig_apply(repmat(b1,1,Q) + IW1_1*Xp1);
    
    % Layer 2
    a2 = repmat(b2,1,Q) + LW2_1*a1;
    
    % Output 1
    Y{1,ts} = mapminmax_reverse(a2,y1_step1);
    Y{1,ts} = Y{1,ts}';
end

% Final Delay States
Xf = cell(1,0);
Af = cell(2,0);

% Format Output Arguments
if ~isCellX
    Y = cell2mat(Y);
end
end

% ===== MODULE FUNCTIONS ========

% Map Minimum and Maximum Input Processing Function
function y = mapminmax_apply(x,settings)
y = bsxfun(@minus,x,settings.xoffset);
y = bsxfun(@times,y,settings.gain);
y = bsxfun(@plus,y,settings.ymin);
end

% Sigmoid Symmetric Transfer Function
function a = tansig_apply(n,~)
a = 2 ./ (1 + exp(-2*n)) - 1;
end

% Map Minimum and Maximum Output Reverse-Processing Function
function x = mapminmax_reverse(y,settings)
x = bsxfun(@minus,y,settings.ymin);
x = bsxfun(@rdivide,x,settings.gain);
x = bsxfun(@plus,x,settings.xoffset);
end
